tree
version=v3
num_class=1
num_tree_per_iteration=1
label_index=0
max_feature_idx=15
objective=binary sigmoid:1
feature_names=age weight_p1 weight_p2 weight_p3 odds_p1 odds_p2 odds_p3 chakujun_p1 chakujun_p2 chakujun_p3 race_interval_p1 race_interval_p2 race_interval_p3 sex_セ sex_牝 sex_牡
feature_infos=[1:9] [422:568] [420:564] [408:562] [1.3:346.89999999999998] [1.5:798.89999999999998] [1.3999999999999999:345.30000000000001] [1:18] [1:18] [1:18] [7:672] [35:932] [49:952] none [0:1] [0:1]
tree_sizes=939 1258 1264 1343 1266 1162 1363 1363 1358 1363 1259 1368 1247

Tree=0
num_leaves=8
num_cat=0
split_feature=4 6 1 4 5 11 8
split_gain=35.2238 7.68179 9.31484 5.96727 4.24316 3.58188 0.922485
threshold=9.8500000000000014 11.550000000000002 495.00000000000006 6.4500000000000011 11.450000000000001 126.50000000000001 12.500000000000002
decision_type=10 8 10 10 10 2 2
left_child=1 2 3 -1 5 -2 -6
right_child=4 -3 -4 -5 6 -7 -8
leaf_value=-1.2668530565901461 -1.5295465429559618 -1.5640674436114763 -1.5281686078457626 -1.4490871145647704 -1.6935208210696557 -1.6654109448215939 -1.6349585788861936
leaf_weight=3.9843648076057452 4.2689622938632992 5.407352238893508 4.8381572663784027 3.2728710919618607 12.664588138461115 3.5574685782194138 3.4151698350906363
leaf_count=28 30 38 34 23 89 25 24
internal_value=-1.57277 -1.46499 -1.42069 -1.34904 -1.65169 -1.5913 -1.68108
internal_weight=0 17.5027 12.0954 7.25724 23.9062 7.82643 16.0798
internal_count=291 123 85 51 168 55 113
is_linear=0
shrinkage=1


Tree=1
num_leaves=11
num_cat=0
split_feature=4 1 7 7 10 8 5 2 5 8
split_gain=28.0661 5.89388 4.48422 9.24676 4.20527 5.95358 1.66303 0.285676 0.00137194 1.77587e-05
threshold=9.2500000000000018 505.00000000000006 6.5000000000000009 2.5000000000000004 31.500000000000004 4.5000000000000009 27.000000000000004 503.00000000000006 11.450000000000001 9.5000000000000018
decision_type=8 10 10 8 2 2 10 2 10 2
left_child=1 2 3 -1 7 -6 -7 8 -2 -10
right_child=4 -3 -4 -5 5 6 -8 -9 9 -11
leaf_value=0.17078288062901151 -0.12117579028243908 -0.011679589252774488 0.23132202334676735 -0.035292170230286968 0.069435150830098699 -0.032525891928938441 -0.11874634672075753 -0.082348179069326469 -0.11838709472236078 -0.11872914828131345
leaf_weight=6.0958492904901513 2.8778009712696093 3.6418821811676017 3.379960671067237 3.3873430937528619 4.2108403444290152 4.5680943727493268 4.3839685171842575 2.7053740322589865 3.5421606302261353 2.6558773219585419
leaf_count=39 20 25 22 22 30 33 33 20 27 20
internal_value=0 0.100626 0.132423 0.097174 -0.0674692 -0.0286245 -0.0747494 -0.11087 -0.119371 -0.118534
internal_weight=0 16.505 12.8632 9.48319 24.9441 13.1629 8.95206 11.7812 9.07584 6.19804
internal_count=291 108 83 61 183 96 66 87 67 47
is_linear=0
shrinkage=0.1


Tree=2
num_leaves=11
num_cat=0
split_feature=4 5 5 10 4 5 12 8 5 12
split_gain=22.664 5.56997 4.30771 4.65585 7.56323 3.84861 3.40587 0.975701 0.000180733 8.15446e-06
threshold=9.8500000000000014 3.2000000000000006 5.6500000000000012 49.500000000000007 5.2500000000000009 11.450000000000001 186.00000000000003 12.500000000000002 27.000000000000004 186.00000000000003
decision_type=10 8 10 2 10 10 2 2 10 2
left_child=1 -1 -3 4 -4 6 -2 8 -7 -10
right_child=5 2 3 -5 -6 7 -8 -9 9 -11
leaf_value=0.17766839484396604 0.045561300930876916 -0.035258396876450528 0.24098446328575338 -0.012408256876130196 0.038771686878197376 -0.11730065408811097 -0.089415650782700029 -0.053134281545625939 -0.1163830470749794 -0.11661258220039604
leaf_weight=4.2648415863513973 4.2146278321743038 4.3889161646366111 3.2618903219699842 3.5633904933929443 4.2722003757953644 4.2608322352170926 3.3596128821372986 3.0877533853054038 4.2330113500356674 2.4398177266120911
leaf_count=26 30 27 20 23 27 34 25 24 35 20
internal_value=0 0.0764748 0.0486068 0.0817744 0.12632 -0.0717462 -0.0143088 -0.102773 -0.116792 -0.116467
internal_weight=0 19.7512 15.4864 11.0975 7.53409 21.5957 7.57424 14.0214 10.9337 6.67283
internal_count=291 123 97 70 47 168 55 113 89 55
is_linear=0
shrinkage=0.1


Tree=3
num_leaves=12
num_cat=0
split_feature=4 5 9 9 10 5 6 4 2 5 8
split_gain=18.4058 4.25688 4.12963 4.51411 3.17604 3.80324 2.55838 1.43165 0.313024 0.00305353 4.49145e-05
threshold=9.8500000000000014 3.2000000000000006 7.5000000000000009 2.5000000000000004 31.500000000000004 11.450000000000001 8.2000000000000011 54.70000000000001 503.00000000000006 11.9 9.5000000000000018
decision_type=8 8 2 2 2 8 10 8 2 10 2
left_child=1 -1 3 -3 8 -6 -5 -7 9 -2 -11
right_child=4 2 -4 6 5 7 -8 -9 -10 10 -12
leaf_value=0.15299889873437847 -0.11899394505858157 -0.0089760425367705239 -0.047176585254155801 0.1758460557615609 0.046191622121470439 -0.11595092940058969 0.056283348691437064 -0.025275615494302375 -0.074934435784033457 -0.114533115042028 -0.11513258125973234
leaf_weight=4.5504828393459347 2.6531632691621798 4.2434162348508817 3.8233499377965918 3.9032146334648132 4.1964533627033207 3.7799699828028688 3.3051156401634216 3.2283894568681717 2.4073964357376099 2.769724003970623 2.2776401787996292
leaf_count=25 20 26 24 22 30 32 21 26 20 25 20
internal_value=0 0.0681012 0.04281 0.0728534 -0.0657641 -0.0290991 0.121025 -0.0741815 -0.106408 -0.116247 -0.114804
internal_weight=0 19.8256 15.2751 11.4517 21.3127 11.2048 7.20833 7.00836 10.1079 7.70053 5.04736
internal_count=291 118 93 69 173 88 43 58 85 65 45
is_linear=0
shrinkage=0.1


Tree=4
num_leaves=11
num_cat=0
split_feature=4 1 8 12 5 12 7 8 10 3
split_gain=15.1514 3.56766 5.68833 4.55028 3.41061 3.06474 2.69123 1.02586 0.000190051 3.02244e-05
threshold=9.8500000000000014 497.00000000000006 5.5000000000000009 156.00000000000003 11.450000000000001 186.00000000000003 3.5000000000000004 12.500000000000002 31.500000000000004 489.00000000000006
decision_type=10 10 2 2 10 2 10 2 2 2
left_child=1 2 3 -1 5 -2 -3 8 9 -6
right_child=4 6 -4 -5 7 -7 -8 -9 -10 -11
leaf_value=0.059423102534068163 0.044086463802193734 -0.067405700154848078 -0.021944315225351209 0.18836165552490061 -0.11295229469835491 -0.086060133956101917 0.060855301305016311 -0.044674517702939266 -0.11407358026452596 -0.11343641951519468
leaf_weight=5.7704911082983035 4.238126806914809 3.3354862183332434 3.7593990266323081 5.2064304351806641 2.9441098943352682 3.1573215648531914 3.2105651795864105 2.8130558356642714 4.0966057032346725 2.2946542203426361
leaf_count=33 30 20 23 27 29 25 20 24 38 22
internal_value=0 0.0569318 0.0842201 0.12058 -0.065018 -0.0114767 -0.00449903 -0.0976116 -0.113563 -0.113164
internal_weight=0 21.2824 14.7363 10.9769 19.5439 7.39545 6.54605 12.1484 9.33537 5.23876
internal_count=291 123 83 60 168 55 40 113 89 51
is_linear=0
shrinkage=0.1


Tree=5
num_leaves=10
num_cat=0
split_feature=4 5 6 7 12 10 8 10 3
split_gain=12.4844 3.17322 3.11393 4.47637 2.95166 2.89672 1.02601 0.000135327 2.15305e-05
threshold=9.8500000000000014 11.450000000000001 11.550000000000002 4.5000000000000009 156.00000000000003 31.500000000000004 12.500000000000002 31.500000000000004 489.00000000000006
decision_type=10 10 8 10 2 2 2 2 2
left_child=2 5 3 4 -1 -2 7 8 -3
right_child=1 6 -4 -5 -6 -7 -8 -9 -10
leaf_value=-0.025774392175904777 -0.084602946352466193 -0.11156890204351898 -0.011131217609951234 0.13918216424780211 0.085477235839549554 0.042804271007896182 -0.041619893843307512 -0.11255759615231871 -0.11199590206935417
leaf_weight=4.7461510151624697 3.0709369182586697 2.6952760517597181 6.0726855993270865 6.216592162847518 4.7933056205511093 4.2599246427416801 2.7224424704909316 3.7541210353374481 2.1016229093074799
leaf_count=27 25 29 38 34 24 30 24 38 22
internal_value=0 -0.061782 0.0497066 0.0731546 0.0301264 -0.0105673 -0.0950857 -0.112108 -0.111756
internal_weight=0 18.6043 21.8287 15.756 9.53946 7.33086 11.2735 8.55102 4.7969
internal_count=291 168 123 85 51 55 113 89 51
is_linear=0
shrinkage=0.1


Tree=6
num_leaves=12
num_cat=0
split_feature=4 1 10 10 8 6 7 5 2 5 8
split_gain=10.515 3.62293 3.55307 4.27859 7.7919 2.30115 4.08395 2.06262 0.383285 0.00600099 0.000113351
threshold=9.2500000000000018 507.00000000000006 31.500000000000004 108.50000000000001 4.5000000000000009 11.550000000000002 4.5000000000000009 27.000000000000004 503.00000000000006 11.450000000000001 9.5000000000000018
decision_type=8 10 2 2 2 10 10 10 2 10 2
left_child=1 5 8 4 -4 6 -1 -6 9 -2 -11
right_child=2 -3 3 -5 7 -7 -8 -9 -10 10 -12
leaf_value=0.047011133053419182 -0.11707898475281669 -0.042173660246822842 0.15534291994732083 -0.11966832012453686 0.0073016065683960355 0.008229680339954918 0.16774539366801614 -0.11211338209164773 -0.063137120006988484 -0.11034747709489784 -0.11140504301253007
leaf_weight=7.4013992249965721 2.4354246556758898 3.5074728280305854 2.826430067420004 2.9905309230089179 3.1837523877620697 4.420778974890708 4.5081959217786789 2.6507288888096809 2.0012343227863312 2.2944189161062241 1.8153117969632147
leaf_count=38 20 21 18 24 26 27 22 28 20 27 20
internal_value=0 0.0500375 -0.0524635 -0.0165423 0.0190661 0.0698428 0.0927132 -0.0469512 -0.101436 -0.113146 -0.110815
internal_weight=0 19.8378 20.1978 11.6514 8.66091 16.3304 11.9096 5.83448 8.54639 6.54516 4.10973
internal_count=291 108 183 96 72 87 60 54 87 67 47
is_linear=0
shrinkage=0.1


Tree=7
num_leaves=12
num_cat=0
split_feature=4 10 10 8 1 12 2 5 2 5 8
split_gain=8.68954 3.27264 3.76862 5.87168 2.87054 2.07488 4.08944 1.90032 0.389617 0.00427829 8.17522e-05
threshold=9.2500000000000018 31.500000000000004 108.50000000000001 4.5000000000000009 505.00000000000006 105.50000000000001 483.00000000000006 27.000000000000004 503.00000000000006 11.450000000000001 9.5000000000000018
decision_type=8 2 2 2 10 2 2 10 2 10 2
left_child=4 8 3 -3 5 -1 -7 -5 9 -2 -11
right_child=1 2 -4 7 -6 6 -8 -9 -10 10 -12
leaf_value=0.12802932181900359 -0.11520546743616628 0.12773487100949915 -0.11754583699755179 0.0065364446619183107 -0.030373104193617623 -0.018220695550895501 0.097277120900183117 -0.11083421752789589 -0.059833597177800506 -0.10926639975192363 -0.11020594593726032
leaf_weight=3.7719918936491075 2.2376548051834133 3.078257888555525 2.7522872388362876 3.199897862970829 4.124443292617797 5.7590014189481717 6.5548592805862427 2.424739882349968 1.9056256040930746 2.0955640524625783 1.6595174297690389
leaf_count=20 20 18 24 26 25 31 32 28 20 27 20
internal_value=0 -0.0496974 -0.0155517 0.0167039 0.0440547 0.0631381 0.0432606 -0.0440612 -0.0992198 -0.111744 -0.109682
internal_weight=0 19.3535 11.4552 8.7029 20.2103 16.0859 12.3139 5.62464 7.89836 5.99274 3.75508
internal_count=291 183 96 72 108 83 63 54 87 67 47
is_linear=0
shrinkage=0.1


Tree=8
num_leaves=12
num_cat=0
split_feature=4 10 10 8 0 8 7 4 2 5 8
split_gain=7.22524 3.60119 3.57764 4.86393 2.96349 3.439 3.58611 1.21156 0.424082 0.00871021 5.91354e-05
threshold=8.7500000000000018 31.500000000000004 108.50000000000001 7.5000000000000009 4.5000000000000009 4.5000000000000009 2.5000000000000004 35.000000000000007 503.00000000000006 11.450000000000001 9.5000000000000018
decision_type=8 2 2 2 2 2 8 10 2 10 2
left_child=4 8 3 -3 -1 6 -6 -5 9 -2 -11
right_child=1 2 -4 7 5 -7 -8 -9 -10 10 -12
leaf_value=0.10138047133287241 -0.11653114131700178 0.083287123491081846 -0.11567925327200589 -0.11540455957866942 0.11276490842269507 -0.060013377073155086 -0.0079240494192355706 -0.0050299473769615374 -0.05659243578988582 -0.10830724848605283 -0.10914360214877904
leaf_weight=5.7024824768304851 2.4011936560273197 5.1203528121113759 2.52848957479 2.1322162672877316 4.5934494361281368 4.1889444738626471 5.3058362007141122 1.8638245984911916 1.8179482966661451 1.912076957523823 1.5154603347182272
leaf_count=29 22 33 24 21 23 24 28 20 20 27 20
internal_value=0 -0.045443 -0.0104318 0.0187593 0.0405576 0.0159384 0.0480778 -0.0639239 -0.0987606 -0.111913 -0.108677
internal_weight=0 19.2916 11.6449 9.11639 19.7907 14.0882 9.89929 3.99604 7.64668 5.82873 3.42754
internal_count=291 187 98 74 104 75 51 41 89 69 47
is_linear=0
shrinkage=0.1


Tree=9
num_leaves=12
num_cat=0
split_feature=5 10 1 3 3 10 6 6 8 4 8
split_gain=6.5912 4.63413 3.58527 2.83437 3.96715 4.38762 6.04251 2.3191 0.953366 0.00312999 0.000105721
threshold=27.000000000000004 116.50000000000001 459.00000000000006 475.00000000000006 515.00000000000011 31.500000000000004 5.4500000000000011 6.6500000000000012 5.5000000000000009 21.000000000000004 10.500000000000002
decision_type=8 2 10 2 2 2 10 10 2 10 2
left_child=1 2 -1 -4 5 6 -5 -7 -2 -10 -11
right_child=8 -3 3 4 -6 7 -8 -9 9 10 -12
leaf_value=0.12863566837157411 -0.028621182513095356 -0.079861104223875268 -0.050398383649371173 0.094615585645588515 -0.063293277941271278 0.052522881356687048 -0.094274095962662174 0.15404942789234777 -0.11409162648278433 -0.10837899221531105 -0.10948436458310525
leaf_weight=3.4193811044097009 1.9420568495988835 4.209236152470111 4.7042828202247646 3.2573503106832531 3.3091792687773696 4.5337464958429319 3.5276601165533066 4.4662963524460793 1.7680718600749967 1.7668583244085314 1.695633068680763
leaf_count=25 15 30 31 18 24 24 31 26 20 25 22
internal_value=0 0.0177855 0.0328865 0.0191293 0.0362589 0.057129 -0.00359187 0.102906 -0.0884533 -0.110668 -0.10892
internal_weight=0 31.4271 27.2179 23.7985 19.0942 15.7851 6.78501 9.00004 7.17262 5.23056 3.46249
internal_count=291 209 179 154 123 99 49 50 82 67 47
is_linear=0
shrinkage=0.1


Tree=10
num_leaves=11
num_cat=0
split_feature=5 10 3 5 3 3 5 11 11 4
split_gain=5.68261 3.8348 3.41474 3.14166 3.19621 3.92929 4.36161 3.74752 0.995575 0.0191965
threshold=27.000000000000004 116.50000000000001 455.00000000000006 3.2000000000000006 473.00000000000006 515.00000000000011 7.8500000000000005 73.500000000000014 102.00000000000001 19.200000000000003
decision_type=8 2 2 8 2 2 10 2 2 10
left_child=1 2 -1 -4 -5 6 -6 -8 9 -2
right_child=8 -3 3 4 5 -7 7 -9 -10 -11
leaf_value=0.13091173008624352 -0.12133917460144715 -0.075604455253089953 0.087916850054097107 -0.091338047860342664 -0.023809810855322414 -0.087145711924227862 0.0138571004677676 0.15645809907447125 -0.032968221285858378 -0.10799151920987662
leaf_weight=2.9393286630511346 1.9470109976828087 4.0120349898934355 4.965176589787009 3.2723688594996956 5.9404790252447146 2.9677914679050437 3.3997651226818562 4.0243341252207756 2.3289047181606293 2.4126773551106453
leaf_count=18 19 30 24 28 34 23 23 29 27 36
internal_value=0 0.0157282 0.0290485 0.0168625 -0.00113305 0.0169405 0.0400543 0.0911559 -0.0857545 -0.113953
internal_weight=0 31.5213 27.5092 24.5699 19.6047 16.3324 13.3646 7.4241 6.68859 4.35969
internal_count=291 209 179 161 137 109 86 52 82 55
is_linear=0
shrinkage=0.1


Tree=11
num_leaves=12
num_cat=0
split_feature=4 5 12 1 8 2 11 7 8 5 11
split_gain=5.25363 2.39803 2.2238 1.98367 2.77818 2.91224 3.58947 2.25827 1.37891 0.00276936 0.000156391
threshold=9.8500000000000014 11.450000000000001 161.50000000000003 495.00000000000006 1.5000000000000002 487.00000000000006 95.000000000000014 2.5000000000000004 12.500000000000002 25.900000000000002 79.500000000000014
decision_type=10 10 2 10 2 2 2 10 2 10 2
left_child=3 2 -2 4 -1 6 -6 -5 9 -3 -11
right_child=1 8 -4 7 5 -7 -8 -9 -10 10 -12
leaf_value=0.11670989321825685 0.054884197033424877 -0.11147494644736085 -0.060293818164699843 -0.074348239939701036 0.053271580261136091 0.097732909677860164 -0.08316930663558092 0.035976011858661477 -0.014182811935004647 -0.1065461699732253 -0.10791456245725682
leaf_weight=4.2876372709870365 3.2626382559537879 2.6952520906925184 3.447733711451292 3.4184988141059867 4.0178047120571119 3.5016215369105339 3.7072771117091179 4.0577049106359482 2.0485556572675705 1.8231258951127531 1.541287265717983
leaf_count=20 24 33 31 20 21 17 22 23 24 32 24
internal_value=0 -0.0485128 -0.00429332 0.0278444 0.0482351 0.0220837 -0.0122066 -0.0144698 -0.0851089 -0.109086 -0.107173
internal_weight=0 14.8186 6.71037 22.9905 15.5143 11.2267 7.72508 7.4762 8.10822 6.05967 3.36441
internal_count=291 168 55 123 80 60 43 43 113 89 56
is_linear=0
shrinkage=0.1


Tree=12
num_leaves=11
num_cat=0
split_feature=5 3 10 10 4 7 3 11 5 4
split_gain=4.55452 3.01136 3.34473 2.41049 4.43182 2.63641 3.45667 1.02735 0.53276 0.0182759
threshold=27.000000000000004 517.00000000000011 116.50000000000001 31.500000000000004 8.7500000000000018 7.5000000000000009 489.00000000000006 102.00000000000001 11.15 19.200000000000003
decision_type=8 2 2 2 8 10 2 2 10 10
left_child=1 2 3 4 -1 6 -5 9 -6 -2
right_child=7 -3 -4 5 8 -7 -8 -9 -10 -11
leaf_value=0.048326612870561329 -0.12050544087875925 -0.084216976442092403 -0.068000060532186463 -0.025730814141632214 -0.1143385573398005 0.1227695044968755 0.095622260708589688 -0.026903721850375407 -0.036720714107764167 -0.10665089194224259
leaf_weight=6.8152486234903416 1.7880662158131593 2.8806098103523246 3.5310513079166403 4.9333641305565816 2.4368262700736536 4.8496222496032706 4.4776448905467987 2.1635265946388245 1.388029847294092 2.0365795604884624
leaf_count=33 19 24 28 27 25 29 22 27 21 36
internal_value=0 0.0132109 0.023082 0.0359979 -2.20642e-05 0.062873 0.0320075 -0.0819752 -0.0861713 -0.113128
internal_weight=0 31.3124 28.4318 24.9007 10.6401 14.2606 9.41101 5.98817 3.82486 3.82465
internal_count=291 209 185 157 79 78 49 82 46 55
is_linear=0
shrinkage=0.1


end of trees

feature_importances:
odds_p2=25
chakujun_p2=19
odds_p1=18
race_interval_p1=17
weight_p3=9
chakujun_p1=8
weight_p1=7
weight_p2=7
race_interval_p3=7
odds_p3=6
race_interval_p2=6
chakujun_p3=2
age=1

parameters:
[boosting: gbdt]
[objective: binary]
[metric: binary_logloss]
[tree_learner: serial]
[device_type: cpu]
[linear_tree: 0]
[data: ]
[valid: ]
[num_iterations: 1000]
[learning_rate: 0.1]
[num_leaves: 31]
[num_threads: 0]
[deterministic: 0]
[force_col_wise: 0]
[force_row_wise: 0]
[histogram_pool_size: -1]
[max_depth: -1]
[min_data_in_leaf: 20]
[min_sum_hessian_in_leaf: 0.001]
[bagging_fraction: 1]
[pos_bagging_fraction: 1]
[neg_bagging_fraction: 1]
[bagging_freq: 0]
[bagging_seed: 3]
[feature_fraction: 1]
[feature_fraction_bynode: 1]
[feature_fraction_seed: 2]
[extra_trees: 0]
[extra_seed: 6]
[early_stopping_round: 10]
[first_metric_only: 0]
[max_delta_step: 0]
[lambda_l1: 0]
[lambda_l2: 0]
[linear_lambda: 0]
[min_gain_to_split: 0]
[drop_rate: 0.1]
[max_drop: 50]
[skip_drop: 0.5]
[xgboost_dart_mode: 0]
[uniform_drop: 0]
[drop_seed: 4]
[top_rate: 0.2]
[other_rate: 0.1]
[min_data_per_group: 100]
[max_cat_threshold: 32]
[cat_l2: 10]
[cat_smooth: 10]
[max_cat_to_onehot: 4]
[top_k: 20]
[monotone_constraints: ]
[monotone_constraints_method: basic]
[monotone_penalty: 0]
[feature_contri: ]
[forcedsplits_filename: ]
[refit_decay_rate: 0.9]
[cegb_tradeoff: 1]
[cegb_penalty_split: 0]
[cegb_penalty_feature_lazy: ]
[cegb_penalty_feature_coupled: ]
[path_smooth: 0]
[interaction_constraints: ]
[verbosity: 1]
[saved_feature_importance_type: 0]
[max_bin: 255]
[max_bin_by_feature: ]
[min_data_in_bin: 3]
[bin_construct_sample_cnt: 200000]
[data_random_seed: 1]
[is_enable_sparse: 1]
[enable_bundle: 1]
[use_missing: 1]
[zero_as_missing: 0]
[feature_pre_filter: 1]
[pre_partition: 0]
[two_round: 0]
[header: 0]
[label_column: ]
[weight_column: ]
[group_column: ]
[ignore_column: ]
[categorical_feature: ]
[forcedbins_filename: ]
[objective_seed: 5]
[num_class: 1]
[is_unbalance: 0]
[scale_pos_weight: 1]
[sigmoid: 1]
[boost_from_average: 1]
[reg_sqrt: 0]
[alpha: 0.9]
[fair_c: 1]
[poisson_max_delta_step: 0.7]
[tweedie_variance_power: 1.5]
[lambdarank_truncation_level: 30]
[lambdarank_norm: 1]
[label_gain: ]
[eval_at: ]
[multi_error_top_k: 1]
[auc_mu_weights: ]
[num_machines: 1]
[local_listen_port: 12400]
[time_out: 120]
[machine_list_filename: ]
[machines: ]
[gpu_platform_id: -1]
[gpu_device_id: -1]
[gpu_use_dp: 0]
[num_gpu: 1]

end of parameters

pandas_categorical:[]
